digraph Tree {
node [shape=box] ;
0 [label="credit=normal <= 0.5\nentropy = 0.998\nsamples = 103\nvalue = [54, 49]"] ;
1 [label="income=low <= 0.5\nentropy = 0.992\nsamples = 47\nvalue = [21, 26]"] ;
0 -> 1 [labeldistance=2.5, labelangle=45, headlabel="True"] ;
2 [label="stuent=yes <= 0.5\nentropy = 0.999\nsamples = 35\nvalue = [18, 17]"] ;
1 -> 2 ;
3 [label="age=old <= 0.5\nentropy = 0.94\nsamples = 14\nvalue = [5, 9]"] ;
2 -> 3 ;
4 [label="age=middle <= 0.5\nentropy = 0.764\nsamples = 9\nvalue = [2, 7]"] ;
3 -> 4 ;
5 [label="income=medium <= 0.5\nentropy = 0.722\nsamples = 5\nvalue = [1, 4]"] ;
4 -> 5 ;
6 [label="entropy = 0.811\nsamples = 4\nvalue = [1, 3]"] ;
5 -> 6 ;
7 [label="entropy = 0.0\nsamples = 1\nvalue = [0, 1]"] ;
5 -> 7 ;
8 [label="entropy = 0.811\nsamples = 4\nvalue = [1, 3]"] ;
4 -> 8 ;
9 [label="income=medium <= 0.5\nentropy = 0.971\nsamples = 5\nvalue = [3, 2]"] ;
3 -> 9 ;
10 [label="entropy = 0.0\nsamples = 2\nvalue = [2, 0]"] ;
9 -> 10 ;
11 [label="entropy = 0.918\nsamples = 3\nvalue = [1, 2]"] ;
9 -> 11 ;
12 [label="income=medium <= 0.5\nentropy = 0.959\nsamples = 21\nvalue = [13, 8]"] ;
2 -> 12 ;
13 [label="age=middle <= 0.5\nentropy = 0.971\nsamples = 10\nvalue = [4, 6]"] ;
12 -> 13 ;
14 [label="age=old <= 0.5\nentropy = 0.991\nsamples = 9\nvalue = [4, 5]"] ;
13 -> 14 ;
15 [label="entropy = 0.918\nsamples = 3\nvalue = [1, 2]"] ;
14 -> 15 ;
16 [label="entropy = 1.0\nsamples = 6\nvalue = [3, 3]"] ;
14 -> 16 ;
17 [label="entropy = 0.0\nsamples = 1\nvalue = [0, 1]"] ;
13 -> 17 ;
18 [label="age=old <= 0.5\nentropy = 0.684\nsamples = 11\nvalue = [9, 2]"] ;
12 -> 18 ;
19 [label="age=middle <= 0.5\nentropy = 0.722\nsamples = 10\nvalue = [8, 2]"] ;
18 -> 19 ;
20 [label="entropy = 0.722\nsamples = 5\nvalue = [4, 1]"] ;
19 -> 20 ;
21 [label="entropy = 0.722\nsamples = 5\nvalue = [4, 1]"] ;
19 -> 21 ;
22 [label="entropy = 0.0\nsamples = 1\nvalue = [1, 0]"] ;
18 -> 22 ;
23 [label="age=middle <= 0.5\nentropy = 0.811\nsamples = 12\nvalue = [3, 9]"] ;
1 -> 23 ;
24 [label="stuent=no <= 0.5\nentropy = 0.918\nsamples = 9\nvalue = [3, 6]"] ;
23 -> 24 ;
25 [label="age=young <= 0.5\nentropy = 0.971\nsamples = 5\nvalue = [2, 3]"] ;
24 -> 25 ;
26 [label="entropy = 1.0\nsamples = 2\nvalue = [1, 1]"] ;
25 -> 26 ;
27 [label="entropy = 0.918\nsamples = 3\nvalue = [1, 2]"] ;
25 -> 27 ;
28 [label="age=old <= 0.5\nentropy = 0.811\nsamples = 4\nvalue = [1, 3]"] ;
24 -> 28 ;
29 [label="entropy = 1.0\nsamples = 2\nvalue = [1, 1]"] ;
28 -> 29 ;
30 [label="entropy = 0.0\nsamples = 2\nvalue = [0, 2]"] ;
28 -> 30 ;
31 [label="entropy = 0.0\nsamples = 3\nvalue = [0, 3]"] ;
23 -> 31 ;
32 [label="stuent=yes <= 0.5\nentropy = 0.977\nsamples = 56\nvalue = [33, 23]"] ;
0 -> 32 [labeldistance=2.5, labelangle=-45, headlabel="False"] ;
33 [label="age=old <= 0.5\nentropy = 0.993\nsamples = 31\nvalue = [17, 14]"] ;
32 -> 33 ;
34 [label="income=medium <= 0.5\nentropy = 0.976\nsamples = 22\nvalue = [13, 9]"] ;
33 -> 34 ;
35 [label="income=high <= 0.5\nentropy = 0.837\nsamples = 15\nvalue = [11, 4]"] ;
34 -> 35 ;
36 [label="age=middle <= 0.5\nentropy = 0.971\nsamples = 5\nvalue = [3, 2]"] ;
35 -> 36 ;
37 [label="entropy = 0.918\nsamples = 3\nvalue = [2, 1]"] ;
36 -> 37 ;
38 [label="entropy = 1.0\nsamples = 2\nvalue = [1, 1]"] ;
36 -> 38 ;
39 [label="age=young <= 0.5\nentropy = 0.722\nsamples = 10\nvalue = [8, 2]"] ;
35 -> 39 ;
40 [label="entropy = 0.811\nsamples = 4\nvalue = [3, 1]"] ;
39 -> 40 ;
41 [label="entropy = 0.65\nsamples = 6\nvalue = [5, 1]"] ;
39 -> 41 ;
42 [label="age=young <= 0.5\nentropy = 0.863\nsamples = 7\nvalue = [2, 5]"] ;
34 -> 42 ;
43 [label="entropy = 1.0\nsamples = 4\nvalue = [2, 2]"] ;
42 -> 43 ;
44 [label="entropy = 0.0\nsamples = 3\nvalue = [0, 3]"] ;
42 -> 44 ;
45 [label="income=high <= 0.5\nentropy = 0.991\nsamples = 9\nvalue = [4, 5]"] ;
33 -> 45 ;
46 [label="income=low <= 0.5\nentropy = 0.918\nsamples = 6\nvalue = [4, 2]"] ;
45 -> 46 ;
47 [label="entropy = 0.0\nsamples = 2\nvalue = [2, 0]"] ;
46 -> 47 ;
48 [label="entropy = 1.0\nsamples = 4\nvalue = [2, 2]"] ;
46 -> 48 ;
49 [label="entropy = 0.0\nsamples = 3\nvalue = [0, 3]"] ;
45 -> 49 ;
50 [label="age=young <= 0.5\nentropy = 0.943\nsamples = 25\nvalue = [16, 9]"] ;
32 -> 50 ;
51 [label="income=high <= 0.5\nentropy = 0.977\nsamples = 17\nvalue = [10, 7]"] ;
50 -> 51 ;
52 [label="age=old <= 0.5\nentropy = 1.0\nsamples = 10\nvalue = [5, 5]"] ;
51 -> 52 ;
53 [label="income=low <= 0.5\nentropy = 0.985\nsamples = 7\nvalue = [4, 3]"] ;
52 -> 53 ;
54 [label="entropy = 0.0\nsamples = 1\nvalue = [1, 0]"] ;
53 -> 54 ;
55 [label="entropy = 1.0\nsamples = 6\nvalue = [3, 3]"] ;
53 -> 55 ;
56 [label="income=medium <= 0.5\nentropy = 0.918\nsamples = 3\nvalue = [1, 2]"] ;
52 -> 56 ;
57 [label="entropy = 1.0\nsamples = 2\nvalue = [1, 1]"] ;
56 -> 57 ;
58 [label="entropy = 0.0\nsamples = 1\nvalue = [0, 1]"] ;
56 -> 58 ;
59 [label="age=middle <= 0.5\nentropy = 0.863\nsamples = 7\nvalue = [5, 2]"] ;
51 -> 59 ;
60 [label="entropy = 0.722\nsamples = 5\nvalue = [4, 1]"] ;
59 -> 60 ;
61 [label="entropy = 1.0\nsamples = 2\nvalue = [1, 1]"] ;
59 -> 61 ;
62 [label="income=high <= 0.5\nentropy = 0.811\nsamples = 8\nvalue = [6, 2]"] ;
50 -> 62 ;
63 [label="income=medium <= 0.5\nentropy = 0.65\nsamples = 6\nvalue = [5, 1]"] ;
62 -> 63 ;
64 [label="entropy = 0.0\nsamples = 1\nvalue = [1, 0]"] ;
63 -> 64 ;
65 [label="entropy = 0.722\nsamples = 5\nvalue = [4, 1]"] ;
63 -> 65 ;
66 [label="entropy = 1.0\nsamples = 2\nvalue = [1, 1]"] ;
62 -> 66 ;
}